digraph Tree {
node [shape=box, style="filled, rounded", color="black", fontname=helvetica] ;
edge [fontname=helvetica] ;
0 [label=<marital_status_Married &le; 0.5<br/>gini = 0.5<br/>samples = 11592<br/>value = [5796.0, 5796.0]<br/>class = Less than $50k>, fillcolor="#ffffff"] ;
1 [label=<hours_per_week &le; 42.5<br/>gini = 0.293<br/>samples = 5264<br/>value = [3824.413, 828.0]<br/>class = Over $50k>, fillcolor="#eb9c64"] ;
0 -> 1 [labeldistance=2.5, labelangle=45, headlabel="True"] ;
2 [label=<age &le; 34.5<br/>gini = 0.188<br/>samples = 4019<br/>value = [3096.903, 364.37]<br/>class = Over $50k>, fillcolor="#e89050"] ;
1 -> 2 ;
3 [label=<age &le; 27.5<br/>gini = 0.067<br/>samples = 2339<br/>value = [1897.673, 67.848]<br/>class = Over $50k>, fillcolor="#e68640"] ;
2 -> 3 ;
4 [label=<age &le; 22.5<br/>gini = 0.026<br/>samples = 1712<br/>value = [1409.344, 18.847]<br/>class = Over $50k>, fillcolor="#e5833c"] ;
3 -> 4 ;
5 [label=<workclass_Self-Employed &le; 0.5<br/>gini = 0.006<br/>samples = 1010<br/>value = [837.135, 2.513]<br/>class = Over $50k>, fillcolor="#e5813a"] ;
4 -> 5 ;
6 [label=<occupation_Service &le; 0.5<br/>gini = 0.003<br/>samples = 982<br/>value = [814.712, 1.256]<br/>class = Over $50k>, fillcolor="#e58139"] ;
5 -> 6 ;
7 [label=<gini = 0.0<br/>samples = 723<br/>value = [600.445, 0.0]<br/>class = Over $50k>, fillcolor="#e58139"] ;
6 -> 7 ;
8 [label=<gini = 0.012<br/>samples = 259<br/>value = [214.267, 1.256]<br/>class = Over $50k>, fillcolor="#e5823a"] ;
6 -> 8 ;
9 [label=<age &le; 21.5<br/>gini = 0.1<br/>samples = 28<br/>value = [22.423, 1.256]<br/>class = Over $50k>, fillcolor="#e68844"] ;
5 -> 9 ;
10 [label=<gini = 0.0<br/>samples = 25<br/>value = [20.762, 0.0]<br/>class = Over $50k>, fillcolor="#e58139"] ;
9 -> 10 ;
11 [label=<gini = 0.49<br/>samples = 3<br/>value = [1.661, 1.256]<br/>class = Over $50k>, fillcolor="#f9e0cf"] ;
9 -> 11 ;
12 [label=<marital_status_Separated &le; 0.5<br/>gini = 0.054<br/>samples = 702<br/>value = [572.209, 16.334]<br/>class = Over $50k>, fillcolor="#e6853f"] ;
4 -> 12 ;
13 [label=<workclass_Private &le; 0.5<br/>gini = 0.048<br/>samples = 672<br/>value = [548.955, 13.821]<br/>class = Over $50k>, fillcolor="#e6843e"] ;
12 -> 13 ;
14 [label=<gini = 0.112<br/>samples = 125<br/>value = [99.659, 6.282]<br/>class = Over $50k>, fillcolor="#e78945"] ;
13 -> 14 ;
15 [label=<gini = 0.032<br/>samples = 547<br/>value = [449.296, 7.539]<br/>class = Over $50k>, fillcolor="#e5833c"] ;
13 -> 15 ;
16 [label=<age &le; 24.5<br/>gini = 0.176<br/>samples = 30<br/>value = [23.254, 2.513]<br/>class = Over $50k>, fillcolor="#e88f4e"] ;
12 -> 16 ;
17 [label=<gini = 0.377<br/>samples = 11<br/>value = [7.474, 2.513]<br/>class = Over $50k>, fillcolor="#eeab7c"] ;
16 -> 17 ;
18 [label=<gini = 0.0<br/>samples = 19<br/>value = [15.779, 0.0]<br/>class = Over $50k>, fillcolor="#e58139"] ;
16 -> 18 ;
19 [label=<education_Bachelors &le; 0.5<br/>gini = 0.166<br/>samples = 627<br/>value = [488.329, 49.002]<br/>class = Over $50k>, fillcolor="#e88e4d"] ;
3 -> 19 ;
20 [label=<education_Doctorate &le; 0.5<br/>gini = 0.126<br/>samples = 525<br/>value = [416.076, 30.155]<br/>class = Over $50k>, fillcolor="#e78a47"] ;
19 -> 20 ;
21 [label=<hours_per_week &le; 40.5<br/>gini = 0.117<br/>samples = 520<br/>value = [413.585, 27.642]<br/>class = Over $50k>, fillcolor="#e78946"] ;
20 -> 21 ;
22 [label=<gini = 0.109<br/>samples = 511<br/>value = [407.771, 25.129]<br/>class = Over $50k>, fillcolor="#e78945"] ;
21 -> 22 ;
23 [label=<gini = 0.421<br/>samples = 9<br/>value = [5.813, 2.513]<br/>class = Over $50k>, fillcolor="#f0b78f"] ;
21 -> 23 ;
24 [label=<age &le; 31.5<br/>gini = 0.5<br/>samples = 5<br/>value = [2.491, 2.513]<br/>class = Less than $50k>, fillcolor="#fdfeff"] ;
20 -> 24 ;
25 [label=<gini = 0.0<br/>samples = 3<br/>value = [2.491, 0.0]<br/>class = Over $50k>, fillcolor="#e58139"] ;
24 -> 25 ;
26 [label=<gini = 0.0<br/>samples = 2<br/>value = [0.0, 2.513]<br/>class = Less than $50k>, fillcolor="#399de5"] ;
24 -> 26 ;
27 [label=<occupation_Sales &le; 0.5<br/>gini = 0.328<br/>samples = 102<br/>value = [72.253, 18.847]<br/>class = Over $50k>, fillcolor="#eca26d"] ;
19 -> 27 ;
28 [label=<occupation_White-Collar &le; 0.5<br/>gini = 0.239<br/>samples = 83<br/>value = [62.287, 10.052]<br/>class = Over $50k>, fillcolor="#e99559"] ;
27 -> 28 ;
29 [label=<gini = 0.304<br/>samples = 53<br/>value = [38.203, 8.795]<br/>class = Over $50k>, fillcolor="#eb9e67"] ;
28 -> 29 ;
30 [label=<gini = 0.094<br/>samples = 30<br/>value = [24.084, 1.256]<br/>class = Over $50k>, fillcolor="#e68843"] ;
28 -> 30 ;
31 [label=<marital_status_Single &le; 0.5<br/>gini = 0.498<br/>samples = 19<br/>value = [9.966, 8.795]<br/>class = Over $50k>, fillcolor="#fcf0e8"] ;
27 -> 31 ;
32 [label=<gini = 0.0<br/>samples = 2<br/>value = [1.661, 0.0]<br/>class = Over $50k>, fillcolor="#e58139"] ;
31 -> 32 ;
33 [label=<gini = 0.5<br/>samples = 17<br/>value = [8.305, 8.795]<br/>class = Less than $50k>, fillcolor="#f4fafe"] ;
31 -> 33 ;
34 [label=<occupation_Professional &le; 0.5<br/>gini = 0.318<br/>samples = 1680<br/>value = [1199.23, 296.522]<br/>class = Over $50k>, fillcolor="#eba06a"] ;
2 -> 34 ;
35 [label=<education_Masters &le; 0.5<br/>gini = 0.258<br/>samples = 1445<br/>value = [1072.995, 192.237]<br/>class = Over $50k>, fillcolor="#ea985c"] ;
34 -> 35 ;
36 [label=<education_Bachelors &le; 0.5<br/>gini = 0.238<br/>samples = 1399<br/>value = [1050.572, 168.364]<br/>class = Over $50k>, fillcolor="#e99559"] ;
35 -> 36 ;
37 [label=<education_Doctorate &le; 0.5<br/>gini = 0.197<br/>samples = 1247<br/>value = [956.726, 119.363]<br/>class = Over $50k>, fillcolor="#e89152"] ;
36 -> 37 ;
38 [label=<gini = 0.192<br/>samples = 1244<br/>value = [956.726, 115.593]<br/>class = Over $50k>, fillcolor="#e89051"] ;
37 -> 38 ;
39 [label=<gini = -0.0<br/>samples = 3<br/>value = [0.0, 3.769]<br/>class = Less than $50k>, fillcolor="#399de5"] ;
37 -> 39 ;
40 [label=<occupation_Sales &le; 0.5<br/>gini = 0.451<br/>samples = 152<br/>value = [93.846, 49.002]<br/>class = Over $50k>, fillcolor="#f3c3a0"] ;
36 -> 40 ;
41 [label=<gini = 0.425<br/>samples = 133<br/>value = [85.541, 37.693]<br/>class = Over $50k>, fillcolor="#f0b990"] ;
40 -> 41 ;
42 [label=<gini = 0.488<br/>samples = 19<br/>value = [8.305, 11.308]<br/>class = Less than $50k>, fillcolor="#cae5f8"] ;
40 -> 42 ;
43 [label=<age &le; 60.5<br/>gini = 0.5<br/>samples = 46<br/>value = [22.423, 23.873]<br/>class = Less than $50k>, fillcolor="#f3f9fd"] ;
35 -> 43 ;
44 [label=<age &le; 47.5<br/>gini = 0.491<br/>samples = 41<br/>value = [18.271, 23.873]<br/>class = Less than $50k>, fillcolor="#d1e8f9"] ;
43 -> 44 ;
45 [label=<gini = 0.496<br/>samples = 28<br/>value = [14.949, 12.564]<br/>class = Over $50k>, fillcolor="#fbebdf"] ;
44 -> 45 ;
46 [label=<gini = 0.351<br/>samples = 13<br/>value = [3.322, 11.308]<br/>class = Less than $50k>, fillcolor="#73baed"] ;
44 -> 46 ;
47 [label=<gini = 0.0<br/>samples = 5<br/>value = [4.152, 0.0]<br/>class = Over $50k>, fillcolor="#e58139"] ;
43 -> 47 ;
48 [label=<workclass_Private &le; 0.5<br/>gini = 0.495<br/>samples = 235<br/>value = [126.235, 104.285]<br/>class = Over $50k>, fillcolor="#fae9dd"] ;
34 -> 48 ;
49 [label=<age &le; 42.5<br/>gini = 0.462<br/>samples = 128<br/>value = [77.236, 43.976]<br/>class = Over $50k>, fillcolor="#f4c9aa"] ;
48 -> 49 ;
50 [label=<workclass_Self-Employed &le; 0.5<br/>gini = 0.275<br/>samples = 52<br/>value = [38.203, 7.539]<br/>class = Over $50k>, fillcolor="#ea9a60"] ;
49 -> 50 ;
51 [label=<gini = 0.131<br/>samples = 42<br/>value = [33.22, 2.513]<br/>class = Over $50k>, fillcolor="#e78b48"] ;
50 -> 51 ;
52 [label=<gini = 0.5<br/>samples = 10<br/>value = [4.983, 5.026]<br/>class = Less than $50k>, fillcolor="#fdfeff"] ;
50 -> 52 ;
53 [label=<education_Doctorate &le; 0.5<br/>gini = 0.499<br/>samples = 76<br/>value = [39.033, 36.437]<br/>class = Over $50k>, fillcolor="#fdf7f2"] ;
49 -> 53 ;
54 [label=<gini = 0.494<br/>samples = 72<br/>value = [39.033, 31.411]<br/>class = Over $50k>, fillcolor="#fae6d8"] ;
53 -> 54 ;
55 [label=<gini = 0.0<br/>samples = 4<br/>value = [0.0, 5.026]<br/>class = Less than $50k>, fillcolor="#399de5"] ;
53 -> 55 ;
56 [label=<age &le; 45.5<br/>gini = 0.495<br/>samples = 107<br/>value = [48.999, 60.31]<br/>class = Less than $50k>, fillcolor="#daedfa"] ;
48 -> 56 ;
57 [label=<education_Prof-school &le; 0.5<br/>gini = 0.458<br/>samples = 66<br/>value = [24.915, 45.232]<br/>class = Less than $50k>, fillcolor="#a6d3f3"] ;
56 -> 57 ;
58 [label=<gini = 0.479<br/>samples = 60<br/>value = [24.915, 37.693]<br/>class = Less than $50k>, fillcolor="#bcdef6"] ;
57 -> 58 ;
59 [label=<gini = 0.0<br/>samples = 6<br/>value = [0.0, 7.539]<br/>class = Less than $50k>, fillcolor="#399de5"] ;
57 -> 59 ;
60 [label=<education_Masters &le; 0.5<br/>gini = 0.474<br/>samples = 41<br/>value = [24.084, 15.077]<br/>class = Over $50k>, fillcolor="#f5d0b5"] ;
56 -> 60 ;
61 [label=<gini = 0.398<br/>samples = 35<br/>value = [23.254, 8.795]<br/>class = Over $50k>, fillcolor="#efb184"] ;
60 -> 61 ;
62 [label=<gini = 0.206<br/>samples = 6<br/>value = [0.83, 6.282]<br/>class = Less than $50k>, fillcolor="#53aae8"] ;
60 -> 62 ;
63 [label=<age &le; 29.5<br/>gini = 0.475<br/>samples = 1245<br/>value = [727.511, 463.63]<br/>class = Over $50k>, fillcolor="#f6d1b7"] ;
1 -> 63 ;
64 [label=<education_Bachelors &le; 0.5<br/>gini = 0.251<br/>samples = 362<br/>value = [269.91, 46.489]<br/>class = Over $50k>, fillcolor="#e9975b"] ;
63 -> 64 ;
65 [label=<occupation_Professional &le; 0.5<br/>gini = 0.168<br/>samples = 269<br/>value = [209.284, 21.36]<br/>class = Over $50k>, fillcolor="#e88e4d"] ;
64 -> 65 ;
66 [label=<workclass_Self-Employed &le; 0.5<br/>gini = 0.131<br/>samples = 251<br/>value = [198.487, 15.077]<br/>class = Over $50k>, fillcolor="#e78b48"] ;
65 -> 66 ;
67 [label=<age &le; 23.5<br/>gini = 0.101<br/>samples = 222<br/>value = [177.725, 10.052]<br/>class = Over $50k>, fillcolor="#e68844"] ;
66 -> 67 ;
68 [label=<gini = 0.032<br/>samples = 92<br/>value = [75.575, 1.256]<br/>class = Over $50k>, fillcolor="#e5833c"] ;
67 -> 68 ;
69 [label=<gini = 0.146<br/>samples = 130<br/>value = [102.15, 8.795]<br/>class = Over $50k>, fillcolor="#e78c4a"] ;
67 -> 69 ;
70 [label=<hours_per_week &le; 49.0<br/>gini = 0.314<br/>samples = 29<br/>value = [20.762, 5.026]<br/>class = Over $50k>, fillcolor="#eba069"] ;
66 -> 70 ;
71 [label=<gini = 0.0<br/>samples = 6<br/>value = [4.983, 0.0]<br/>class = Over $50k>, fillcolor="#e58139"] ;
70 -> 71 ;
72 [label=<gini = 0.366<br/>samples = 23<br/>value = [15.779, 5.026]<br/>class = Over $50k>, fillcolor="#eda978"] ;
70 -> 72 ;
73 [label=<hours_per_week &le; 54.5<br/>gini = 0.465<br/>samples = 18<br/>value = [10.796, 6.282]<br/>class = Over $50k>, fillcolor="#f4caac"] ;
65 -> 73 ;
74 [label=<age &le; 25.5<br/>gini = 0.267<br/>samples = 9<br/>value = [6.644, 1.256]<br/>class = Over $50k>, fillcolor="#ea995e"] ;
73 -> 74 ;
75 [label=<gini = 0.446<br/>samples = 4<br/>value = [2.491, 1.256]<br/>class = Over $50k>, fillcolor="#f2c19d"] ;
74 -> 75 ;
76 [label=<gini = 0.0<br/>samples = 5<br/>value = [4.152, 0.0]<br/>class = Over $50k>, fillcolor="#e58139"] ;
74 -> 76 ;
77 [label=<hours_per_week &le; 65.0<br/>gini = 0.495<br/>samples = 9<br/>value = [4.152, 5.026]<br/>class = Less than $50k>, fillcolor="#ddeefa"] ;
73 -> 77 ;
78 [label=<gini = 0.243<br/>samples = 5<br/>value = [0.83, 5.026]<br/>class = Less than $50k>, fillcolor="#5aade9"] ;
77 -> 78 ;
79 [label=<gini = -0.0<br/>samples = 4<br/>value = [3.322, 0.0]<br/>class = Over $50k>, fillcolor="#e58139"] ;
77 -> 79 ;
80 [label=<age &le; 27.5<br/>gini = 0.414<br/>samples = 93<br/>value = [60.626, 25.129]<br/>class = Over $50k>, fillcolor="#f0b58b"] ;
64 -> 80 ;
81 [label=<workclass_Private &le; 0.5<br/>gini = 0.26<br/>samples = 56<br/>value = [41.525, 7.539]<br/>class = Over $50k>, fillcolor="#ea985d"] ;
80 -> 81 ;
82 [label=<gini = 0.0<br/>samples = 12<br/>value = [9.966, 0.0]<br/>class = Over $50k>, fillcolor="#e58139"] ;
81 -> 82 ;
83 [label=<occupation_White-Collar &le; 0.5<br/>gini = 0.311<br/>samples = 44<br/>value = [31.559, 7.539]<br/>class = Over $50k>, fillcolor="#eb9f68"] ;
81 -> 83 ;
84 [label=<gini = 0.407<br/>samples = 24<br/>value = [15.779, 6.282]<br/>class = Over $50k>, fillcolor="#efb388"] ;
83 -> 84 ;
85 [label=<gini = 0.137<br/>samples = 20<br/>value = [15.779, 1.256]<br/>class = Over $50k>, fillcolor="#e78b49"] ;
83 -> 85 ;
86 [label=<hours_per_week &le; 49.0<br/>gini = 0.499<br/>samples = 37<br/>value = [19.101, 17.59]<br/>class = Over $50k>, fillcolor="#fdf5ef"] ;
80 -> 86 ;
87 [label=<occupation_White-Collar &le; 0.5<br/>gini = 0.377<br/>samples = 11<br/>value = [7.474, 2.513]<br/>class = Over $50k>, fillcolor="#eeab7c"] ;
86 -> 87 ;
88 [label=<gini = 0.0<br/>samples = 7<br/>value = [5.813, 0.0]<br/>class = Over $50k>, fillcolor="#e58139"] ;
87 -> 88 ;
89 [label=<gini = 0.479<br/>samples = 4<br/>value = [1.661, 2.513]<br/>class = Less than $50k>, fillcolor="#bcdef6"] ;
87 -> 89 ;
90 [label=<occupation_Service &le; 0.5<br/>gini = 0.492<br/>samples = 26<br/>value = [11.627, 15.077]<br/>class = Less than $50k>, fillcolor="#d2e9f9"] ;
86 -> 90 ;
91 [label=<gini = 0.47<br/>samples = 23<br/>value = [9.135, 15.077]<br/>class = Less than $50k>, fillcolor="#b1d8f5"] ;
90 -> 91 ;
92 [label=<gini = 0.0<br/>samples = 3<br/>value = [2.491, 0.0]<br/>class = Over $50k>, fillcolor="#e58139"] ;
90 -> 92 ;
93 [label=<education_HS-grad &le; 0.5<br/>gini = 0.499<br/>samples = 883<br/>value = [457.601, 417.141]<br/>class = Over $50k>, fillcolor="#fdf4ed"] ;
63 -> 93 ;
94 [label=<education_Some-college &le; 0.5<br/>gini = 0.496<br/>samples = 674<br/>value = [313.095, 373.165]<br/>class = Less than $50k>, fillcolor="#dfeffb"] ;
93 -> 94 ;
95 [label=<education_School &le; 0.5<br/>gini = 0.471<br/>samples = 490<br/>value = [195.996, 319.138]<br/>class = Less than $50k>, fillcolor="#b3d9f5"] ;
94 -> 95 ;
96 [label=<occupation_White-Collar &le; 0.5<br/>gini = 0.454<br/>samples = 441<br/>value = [163.607, 306.574]<br/>class = Less than $50k>, fillcolor="#a3d1f3"] ;
95 -> 96 ;
97 [label=<gini = 0.482<br/>samples = 290<br/>value = [122.082, 179.672]<br/>class = Less than $50k>, fillcolor="#c0e0f7"] ;
96 -> 97 ;
98 [label=<gini = 0.372<br/>samples = 151<br/>value = [41.525, 126.901]<br/>class = Less than $50k>, fillcolor="#7abdee"] ;
96 -> 98 ;
99 [label=<hours_per_week &le; 75.5<br/>gini = 0.403<br/>samples = 49<br/>value = [32.389, 12.564]<br/>class = Over $50k>, fillcolor="#efb286"] ;
95 -> 99 ;
100 [label=<gini = 0.361<br/>samples = 47<br/>value = [32.389, 10.052]<br/>class = Over $50k>, fillcolor="#eda876"] ;
99 -> 100 ;
101 [label=<gini = 0.0<br/>samples = 2<br/>value = [0.0, 2.513]<br/>class = Less than $50k>, fillcolor="#399de5"] ;
99 -> 101 ;
102 [label=<age &le; 38.5<br/>gini = 0.432<br/>samples = 184<br/>value = [117.099, 54.027]<br/>class = Over $50k>, fillcolor="#f1bb94"] ;
94 -> 102 ;
103 [label=<hours_per_week &le; 49.0<br/>gini = 0.257<br/>samples = 76<br/>value = [56.473, 10.052]<br/>class = Over $50k>, fillcolor="#ea975c"] ;
102 -> 103 ;
104 [label=<gini = 0.0<br/>samples = 26<br/>value = [21.593, 0.0]<br/>class = Over $50k>, fillcolor="#e58139"] ;
103 -> 104 ;
105 [label=<gini = 0.347<br/>samples = 50<br/>value = [34.881, 10.052]<br/>class = Over $50k>, fillcolor="#eca572"] ;
103 -> 105 ;
106 [label=<marital_status_Separated &le; 0.5<br/>gini = 0.487<br/>samples = 108<br/>value = [60.626, 43.976]<br/>class = Over $50k>, fillcolor="#f8dcc9"] ;
102 -> 106 ;
107 [label=<gini = 0.472<br/>samples = 100<br/>value = [58.965, 36.437]<br/>class = Over $50k>, fillcolor="#f5cfb3"] ;
106 -> 107 ;
108 [label=<gini = 0.296<br/>samples = 8<br/>value = [1.661, 7.539]<br/>class = Less than $50k>, fillcolor="#65b3eb"] ;
106 -> 108 ;
109 [label=<age &le; 56.5<br/>gini = 0.358<br/>samples = 209<br/>value = [144.506, 43.976]<br/>class = Over $50k>, fillcolor="#eda775"] ;
93 -> 109 ;
110 [label=<hours_per_week &le; 94.5<br/>gini = 0.302<br/>samples = 184<br/>value = [132.879, 30.155]<br/>class = Over $50k>, fillcolor="#eb9e66"] ;
109 -> 110 ;
111 [label=<occupation_Service &le; 0.5<br/>gini = 0.293<br/>samples = 183<br/>value = [132.879, 28.898]<br/>class = Over $50k>, fillcolor="#eb9c64"] ;
110 -> 111 ;
112 [label=<gini = 0.322<br/>samples = 161<br/>value = [114.608, 28.898]<br/>class = Over $50k>, fillcolor="#eca16b"] ;
111 -> 112 ;
113 [label=<gini = 0.0<br/>samples = 22<br/>value = [18.271, 0.0]<br/>class = Over $50k>, fillcolor="#e58139"] ;
111 -> 113 ;
114 [label=<gini = 0.0<br/>samples = 1<br/>value = [0.0, 1.256]<br/>class = Less than $50k>, fillcolor="#399de5"] ;
110 -> 114 ;
115 [label=<hours_per_week &le; 62.5<br/>gini = 0.496<br/>samples = 25<br/>value = [11.627, 13.821]<br/>class = Less than $50k>, fillcolor="#e0effb"] ;
109 -> 115 ;
116 [label=<occupation_White-Collar &le; 0.5<br/>gini = 0.469<br/>samples = 21<br/>value = [8.305, 13.821]<br/>class = Less than $50k>, fillcolor="#b0d8f5"] ;
115 -> 116 ;
117 [label=<gini = 0.407<br/>samples = 16<br/>value = [4.983, 12.564]<br/>class = Less than $50k>, fillcolor="#88c4ef"] ;
116 -> 117 ;
118 [label=<gini = 0.398<br/>samples = 5<br/>value = [3.322, 1.256]<br/>class = Over $50k>, fillcolor="#efb184"] ;
116 -> 118 ;
119 [label=<gini = 0.0<br/>samples = 4<br/>value = [3.322, 0.0]<br/>class = Over $50k>, fillcolor="#e58139"] ;
115 -> 119 ;
120 [label=<education_School &le; 0.5<br/>gini = 0.407<br/>samples = 6328<br/>value = [1971.587, 4968.0]<br/>class = Less than $50k>, fillcolor="#88c4ef"] ;
0 -> 120 [labeldistance=2.5, labelangle=-45, headlabel="False"] ;
121 [label=<education_HS-grad &le; 0.5<br/>gini = 0.375<br/>samples = 5778<br/>value = [1609.492, 4824.765]<br/>class = Less than $50k>, fillcolor="#7bbeee"] ;
120 -> 121 ;
122 [label=<age &le; 35.5<br/>gini = 0.297<br/>samples = 3955<br/>value = [826.339, 3719.09]<br/>class = Less than $50k>, fillcolor="#65b3eb"] ;
121 -> 122 ;
123 [label=<education_Some-college &le; 0.5<br/>gini = 0.431<br/>samples = 1021<br/>value = [347.145, 757.639]<br/>class = Less than $50k>, fillcolor="#94caf1"] ;
122 -> 123 ;
124 [label=<age &le; 25.5<br/>gini = 0.372<br/>samples = 684<br/>value = [188.522, 574.197]<br/>class = Less than $50k>, fillcolor="#7abdee"] ;
123 -> 124 ;
125 [label=<hours_per_week &le; 34.0<br/>gini = 0.49<br/>samples = 42<br/>value = [23.254, 17.59]<br/>class = Over $50k>, fillcolor="#f9e0cf"] ;
124 -> 125 ;
126 [label=<gini = 0.0<br/>samples = 8<br/>value = [6.644, 0.0]<br/>class = Over $50k>, fillcolor="#e58139"] ;
125 -> 126 ;
127 [label=<gini = 0.5<br/>samples = 34<br/>value = [16.61, 17.59]<br/>class = Less than $50k>, fillcolor="#f4fafe"] ;
125 -> 127 ;
128 [label=<education_Bachelors &le; 0.5<br/>gini = 0.353<br/>samples = 642<br/>value = [165.268, 556.607]<br/>class = Less than $50k>, fillcolor="#74baed"] ;
124 -> 128 ;
129 [label=<gini = 0.415<br/>samples = 287<br/>value = [92.185, 221.135]<br/>class = Less than $50k>, fillcolor="#8cc6f0"] ;
128 -> 129 ;
130 [label=<gini = 0.294<br/>samples = 355<br/>value = [73.083, 335.472]<br/>class = Less than $50k>, fillcolor="#64b2eb"] ;
128 -> 130 ;
131 [label=<age &le; 23.5<br/>gini = 0.497<br/>samples = 337<br/>value = [158.624, 183.442]<br/>class = Less than $50k>, fillcolor="#e4f2fb"] ;
123 -> 131 ;
132 [label=<hours_per_week &le; 46.5<br/>gini = 0.213<br/>samples = 24<br/>value = [18.271, 2.513]<br/>class = Over $50k>, fillcolor="#e99254"] ;
131 -> 132 ;
133 [label=<gini = 0.137<br/>samples = 20<br/>value = [15.779, 1.256]<br/>class = Over $50k>, fillcolor="#e78b49"] ;
132 -> 133 ;
134 [label=<gini = 0.446<br/>samples = 4<br/>value = [2.491, 1.256]<br/>class = Over $50k>, fillcolor="#f2c19d"] ;
132 -> 134 ;
135 [label=<hours_per_week &le; 49.0<br/>gini = 0.492<br/>samples = 313<br/>value = [140.353, 180.929]<br/>class = Less than $50k>, fillcolor="#d3e9f9"] ;
131 -> 135 ;
136 [label=<gini = 0.5<br/>samples = 215<br/>value = [105.472, 110.568]<br/>class = Less than $50k>, fillcolor="#f6fafe"] ;
135 -> 136 ;
137 [label=<gini = 0.443<br/>samples = 98<br/>value = [34.881, 70.361]<br/>class = Less than $50k>, fillcolor="#9bcef2"] ;
135 -> 137 ;
138 [label=<education_Some-college &le; 0.5<br/>gini = 0.24<br/>samples = 2934<br/>value = [479.194, 2961.451]<br/>class = Less than $50k>, fillcolor="#59ade9"] ;
122 -> 138 ;
139 [label=<hours_per_week &le; 31.0<br/>gini = 0.188<br/>samples = 2103<br/>value = [263.266, 2244.018]<br/>class = Less than $50k>, fillcolor="#50a8e8"] ;
138 -> 139 ;
140 [label=<age &le; 44.5<br/>gini = 0.359<br/>samples = 155<br/>value = [40.694, 133.184]<br/>class = Less than $50k>, fillcolor="#75bbed"] ;
139 -> 140 ;
141 [label=<gini = 0.192<br/>samples = 39<br/>value = [4.983, 41.463]<br/>class = Less than $50k>, fillcolor="#51a9e8"] ;
140 -> 141 ;
142 [label=<gini = 0.403<br/>samples = 116<br/>value = [35.711, 91.721]<br/>class = Less than $50k>, fillcolor="#86c3ef"] ;
140 -> 142 ;
143 [label=<occupation_White-Collar &le; 0.5<br/>gini = 0.173<br/>samples = 1948<br/>value = [222.572, 2110.835]<br/>class = Less than $50k>, fillcolor="#4ea7e8"] ;
139 -> 143 ;
144 [label=<gini = 0.205<br/>samples = 1253<br/>value = [171.912, 1314.246]<br/>class = Less than $50k>, fillcolor="#53aae8"] ;
143 -> 144 ;
145 [label=<gini = 0.112<br/>samples = 695<br/>value = [50.66, 796.589]<br/>class = Less than $50k>, fillcolor="#46a3e7"] ;
143 -> 145 ;
146 [label=<hours_per_week &le; 35.5<br/>gini = 0.356<br/>samples = 831<br/>value = [215.928, 717.432]<br/>class = Less than $50k>, fillcolor="#75baed"] ;
138 -> 146 ;
147 [label=<workclass_Private &le; 0.5<br/>gini = 0.481<br/>samples = 93<br/>value = [39.033, 57.797]<br/>class = Less than $50k>, fillcolor="#bfdff7"] ;
146 -> 147 ;
148 [label=<gini = 0.5<br/>samples = 46<br/>value = [22.423, 23.873]<br/>class = Less than $50k>, fillcolor="#f3f9fd"] ;
147 -> 148 ;
149 [label=<gini = 0.441<br/>samples = 47<br/>value = [16.61, 33.924]<br/>class = Less than $50k>, fillcolor="#9acdf2"] ;
147 -> 149 ;
150 [label=<hours_per_week &le; 43.5<br/>gini = 0.333<br/>samples = 738<br/>value = [176.895, 659.636]<br/>class = Less than $50k>, fillcolor="#6eb7ec"] ;
146 -> 150 ;
151 [label=<gini = 0.366<br/>samples = 401<br/>value = [107.964, 340.498]<br/>class = Less than $50k>, fillcolor="#78bced"] ;
150 -> 151 ;
152 [label=<gini = 0.292<br/>samples = 337<br/>value = [68.931, 319.138]<br/>class = Less than $50k>, fillcolor="#64b2eb"] ;
150 -> 152 ;
153 [label=<age &le; 29.5<br/>gini = 0.485<br/>samples = 1823<br/>value = [783.153, 1105.675]<br/>class = Less than $50k>, fillcolor="#c5e2f7"] ;
121 -> 153 ;
154 [label=<age &le; 24.5<br/>gini = 0.439<br/>samples = 240<br/>value = [151.149, 72.874]<br/>class = Over $50k>, fillcolor="#f2be98"] ;
153 -> 154 ;
155 [label=<age &le; 21.5<br/>gini = 0.179<br/>samples = 59<br/>value = [45.677, 5.026]<br/>class = Over $50k>, fillcolor="#e88f4f"] ;
154 -> 155 ;
156 [label=<gini = 0.0<br/>samples = 18<br/>value = [14.949, 0.0]<br/>class = Over $50k>, fillcolor="#e58139"] ;
155 -> 156 ;
157 [label=<occupation_Service &le; 0.5<br/>gini = 0.242<br/>samples = 41<br/>value = [30.728, 5.026]<br/>class = Over $50k>, fillcolor="#e99659"] ;
155 -> 157 ;
158 [label=<gini = 0.208<br/>samples = 37<br/>value = [28.237, 3.769]<br/>class = Over $50k>, fillcolor="#e89253"] ;
157 -> 158 ;
159 [label=<gini = 0.446<br/>samples = 4<br/>value = [2.491, 1.256]<br/>class = Over $50k>, fillcolor="#f2c19d"] ;
157 -> 159 ;
160 [label=<hours_per_week &le; 76.0<br/>gini = 0.476<br/>samples = 181<br/>value = [105.472, 67.848]<br/>class = Over $50k>, fillcolor="#f6d2b8"] ;
154 -> 160 ;
161 [label=<occupation_Professional &le; 0.5<br/>gini = 0.47<br/>samples = 178<br/>value = [105.472, 64.079]<br/>class = Over $50k>, fillcolor="#f5ceb1"] ;
160 -> 161 ;
162 [label=<gini = 0.463<br/>samples = 171<br/>value = [102.981, 59.053]<br/>class = Over $50k>, fillcolor="#f4c9ab"] ;
161 -> 162 ;
163 [label=<gini = 0.443<br/>samples = 7<br/>value = [2.491, 5.026]<br/>class = Less than $50k>, fillcolor="#9bcef2"] ;
161 -> 163 ;
164 [label=<gini = 0.0<br/>samples = 3<br/>value = [0.0, 3.769]<br/>class = Less than $50k>, fillcolor="#399de5"] ;
160 -> 164 ;
165 [label=<hours_per_week &le; 34.5<br/>gini = 0.471<br/>samples = 1583<br/>value = [632.004, 1032.801]<br/>class = Less than $50k>, fillcolor="#b2d9f5"] ;
153 -> 165 ;
166 [label=<occupation_White-Collar &le; 0.5<br/>gini = 0.433<br/>samples = 132<br/>value = [83.88, 38.95]<br/>class = Over $50k>, fillcolor="#f1bc95"] ;
165 -> 166 ;
167 [label=<age &le; 57.5<br/>gini = 0.346<br/>samples = 107<br/>value = [74.744, 21.36]<br/>class = Over $50k>, fillcolor="#eca572"] ;
166 -> 167 ;
168 [label=<gini = 0.439<br/>samples = 58<br/>value = [36.542, 17.59]<br/>class = Over $50k>, fillcolor="#f2be98"] ;
167 -> 168 ;
169 [label=<gini = 0.163<br/>samples = 49<br/>value = [38.203, 3.769]<br/>class = Over $50k>, fillcolor="#e88d4d"] ;
167 -> 169 ;
170 [label=<age &le; 39.5<br/>gini = 0.45<br/>samples = 25<br/>value = [9.135, 17.59]<br/>class = Less than $50k>, fillcolor="#a0d0f3"] ;
166 -> 170 ;
171 [label=<gini = 0.0<br/>samples = 3<br/>value = [2.491, 0.0]<br/>class = Over $50k>, fillcolor="#e58139"] ;
170 -> 171 ;
172 [label=<gini = 0.398<br/>samples = 22<br/>value = [6.644, 17.59]<br/>class = Less than $50k>, fillcolor="#84c2ef"] ;
170 -> 172 ;
173 [label=<occupation_White-Collar &le; 0.5<br/>gini = 0.458<br/>samples = 1451<br/>value = [548.124, 993.851]<br/>class = Less than $50k>, fillcolor="#a6d3f3"] ;
165 -> 173 ;
174 [label=<age &le; 35.5<br/>gini = 0.474<br/>samples = 1170<br/>value = [473.38, 753.869]<br/>class = Less than $50k>, fillcolor="#b5dbf5"] ;
173 -> 174 ;
175 [label=<gini = 0.5<br/>samples = 238<br/>value = [117.099, 121.876]<br/>class = Less than $50k>, fillcolor="#f7fbfe"] ;
174 -> 175 ;
176 [label=<gini = 0.461<br/>samples = 932<br/>value = [356.281, 631.994]<br/>class = Less than $50k>, fillcolor="#a9d4f4"] ;
174 -> 176 ;
177 [label=<age &le; 35.5<br/>gini = 0.362<br/>samples = 281<br/>value = [74.744, 239.982]<br/>class = Less than $50k>, fillcolor="#77bced"] ;
173 -> 177 ;
178 [label=<gini = 0.475<br/>samples = 45<br/>value = [18.271, 28.898]<br/>class = Less than $50k>, fillcolor="#b6dbf5"] ;
177 -> 178 ;
179 [label=<gini = 0.333<br/>samples = 236<br/>value = [56.473, 211.083]<br/>class = Less than $50k>, fillcolor="#6eb7ec"] ;
177 -> 179 ;
180 [label=<age &le; 36.5<br/>gini = 0.406<br/>samples = 550<br/>value = [362.094, 143.235]<br/>class = Over $50k>, fillcolor="#efb387"] ;
120 -> 180 ;
181 [label=<workclass_Private &le; 0.5<br/>gini = 0.191<br/>samples = 136<br/>value = [104.642, 12.564]<br/>class = Over $50k>, fillcolor="#e89051"] ;
180 -> 181 ;
182 [label=<age &le; 35.5<br/>gini = 0.421<br/>samples = 18<br/>value = [11.627, 5.026]<br/>class = Over $50k>, fillcolor="#f0b78f"] ;
181 -> 182 ;
183 [label=<occupation_Service &le; 0.5<br/>gini = 0.37<br/>samples = 17<br/>value = [11.627, 3.769]<br/>class = Over $50k>, fillcolor="#edaa79"] ;
182 -> 183 ;
184 [label=<age &le; 20.0<br/>gini = 0.306<br/>samples = 15<br/>value = [10.796, 2.513]<br/>class = Over $50k>, fillcolor="#eb9e67"] ;
183 -> 184 ;
185 [label=<gini = 0.479<br/>samples = 2<br/>value = [0.83, 1.256]<br/>class = Less than $50k>, fillcolor="#bcdef6"] ;
184 -> 185 ;
186 [label=<gini = 0.199<br/>samples = 13<br/>value = [9.966, 1.256]<br/>class = Over $50k>, fillcolor="#e89152"] ;
184 -> 186 ;
187 [label=<age &le; 32.0<br/>gini = 0.479<br/>samples = 2<br/>value = [0.83, 1.256]<br/>class = Less than $50k>, fillcolor="#bcdef6"] ;
183 -> 187 ;
188 [label=<gini = 0.0<br/>samples = 1<br/>value = [0.0, 1.256]<br/>class = Less than $50k>, fillcolor="#399de5"] ;
187 -> 188 ;
189 [label=<gini = 0.0<br/>samples = 1<br/>value = [0.83, 0.0]<br/>class = Over $50k>, fillcolor="#e58139"] ;
187 -> 189 ;
190 [label=<gini = -0.0<br/>samples = 1<br/>value = [0.0, 1.256]<br/>class = Less than $50k>, fillcolor="#399de5"] ;
182 -> 190 ;
191 [label=<hours_per_week &le; 44.0<br/>gini = 0.139<br/>samples = 118<br/>value = [93.015, 7.539]<br/>class = Over $50k>, fillcolor="#e78b49"] ;
181 -> 191 ;
192 [label=<age &le; 31.5<br/>gini = 0.089<br/>samples = 96<br/>value = [77.236, 3.769]<br/>class = Over $50k>, fillcolor="#e68743"] ;
191 -> 192 ;
193 [label=<occupation_Service &le; 0.5<br/>gini = 0.129<br/>samples = 64<br/>value = [50.66, 3.769]<br/>class = Over $50k>, fillcolor="#e78a48"] ;
192 -> 193 ;
194 [label=<gini = 0.097<br/>samples = 58<br/>value = [46.508, 2.513]<br/>class = Over $50k>, fillcolor="#e68844"] ;
193 -> 194 ;
195 [label=<gini = 0.357<br/>samples = 6<br/>value = [4.152, 1.256]<br/>class = Over $50k>, fillcolor="#eda775"] ;
193 -> 195 ;
196 [label=<gini = 0.0<br/>samples = 32<br/>value = [26.576, 0.0]<br/>class = Over $50k>, fillcolor="#e58139"] ;
192 -> 196 ;
197 [label=<hours_per_week &le; 62.5<br/>gini = 0.311<br/>samples = 22<br/>value = [15.779, 3.769]<br/>class = Over $50k>, fillcolor="#eb9f68"] ;
191 -> 197 ;
198 [label=<age &le; 29.0<br/>gini = 0.384<br/>samples = 16<br/>value = [10.796, 3.769]<br/>class = Over $50k>, fillcolor="#eead7e"] ;
197 -> 198 ;
199 [label=<gini = 0.47<br/>samples = 7<br/>value = [4.152, 2.513]<br/>class = Over $50k>, fillcolor="#f5cdb1"] ;
198 -> 199 ;
200 [label=<gini = 0.267<br/>samples = 9<br/>value = [6.644, 1.256]<br/>class = Over $50k>, fillcolor="#ea995e"] ;
198 -> 200 ;
201 [label=<gini = 0.0<br/>samples = 6<br/>value = [4.983, 0.0]<br/>class = Over $50k>, fillcolor="#e58139"] ;
197 -> 201 ;
202 [label=<hours_per_week &le; 27.5<br/>gini = 0.447<br/>samples = 414<br/>value = [257.452, 130.671]<br/>class = Over $50k>, fillcolor="#f2c19d"] ;
180 -> 202 ;
203 [label=<hours_per_week &le; 21.5<br/>gini = 0.07<br/>samples = 41<br/>value = [33.22, 1.256]<br/>class = Over $50k>, fillcolor="#e68640"] ;
202 -> 203 ;
204 [label=<gini = 0.0<br/>samples = 32<br/>value = [26.576, 0.0]<br/>class = Over $50k>, fillcolor="#e58139"] ;
203 -> 204 ;
205 [label=<hours_per_week &le; 23.0<br/>gini = 0.267<br/>samples = 9<br/>value = [6.644, 1.256]<br/>class = Over $50k>, fillcolor="#ea995e"] ;
203 -> 205 ;
206 [label=<age &le; 61.0<br/>gini = 0.479<br/>samples = 2<br/>value = [0.83, 1.256]<br/>class = Less than $50k>, fillcolor="#bcdef6"] ;
205 -> 206 ;
207 [label=<gini = 0.0<br/>samples = 1<br/>value = [0.83, 0.0]<br/>class = Over $50k>, fillcolor="#e58139"] ;
206 -> 207 ;
208 [label=<gini = 0.0<br/>samples = 1<br/>value = [0.0, 1.256]<br/>class = Less than $50k>, fillcolor="#399de5"] ;
206 -> 208 ;
209 [label=<gini = 0.0<br/>samples = 7<br/>value = [5.813, 0.0]<br/>class = Over $50k>, fillcolor="#e58139"] ;
205 -> 209 ;
210 [label=<age &le; 40.5<br/>gini = 0.464<br/>samples = 373<br/>value = [224.233, 129.414]<br/>class = Over $50k>, fillcolor="#f4caab"] ;
202 -> 210 ;
211 [label=<workclass_Private &le; 0.5<br/>gini = 0.483<br/>samples = 45<br/>value = [19.101, 27.642]<br/>class = Less than $50k>, fillcolor="#c2e1f7"] ;
210 -> 211 ;
212 [label=<workclass_Other/Unknown &le; 0.5<br/>gini = 0.296<br/>samples = 12<br/>value = [2.491, 11.308]<br/>class = Less than $50k>, fillcolor="#65b3eb"] ;
211 -> 212 ;
213 [label=<gini = 0.223<br/>samples = 11<br/>value = [1.661, 11.308]<br/>class = Less than $50k>, fillcolor="#56abe9"] ;
212 -> 213 ;
214 [label=<gini = -0.0<br/>samples = 1<br/>value = [0.83, 0.0]<br/>class = Over $50k>, fillcolor="#e58139"] ;
212 -> 214 ;
215 [label=<occupation_Service &le; 0.5<br/>gini = 0.5<br/>samples = 33<br/>value = [16.61, 16.334]<br/>class = Over $50k>, fillcolor="#fffdfc"] ;
211 -> 215 ;
216 [label=<gini = 0.497<br/>samples = 30<br/>value = [14.118, 16.334]<br/>class = Less than $50k>, fillcolor="#e4f2fb"] ;
215 -> 216 ;
217 [label=<gini = 0.0<br/>samples = 3<br/>value = [2.491, 0.0]<br/>class = Over $50k>, fillcolor="#e58139"] ;
215 -> 217 ;
218 [label=<hours_per_week &le; 49.5<br/>gini = 0.443<br/>samples = 328<br/>value = [205.131, 101.772]<br/>class = Over $50k>, fillcolor="#f2c09b"] ;
210 -> 218 ;
219 [label=<occupation_Sales &le; 0.5<br/>gini = 0.409<br/>samples = 262<br/>value = [171.912, 69.105]<br/>class = Over $50k>, fillcolor="#efb489"] ;
218 -> 219 ;
220 [label=<gini = 0.392<br/>samples = 247<br/>value = [165.268, 60.31]<br/>class = Over $50k>, fillcolor="#eeaf81"] ;
219 -> 220 ;
221 [label=<gini = 0.49<br/>samples = 15<br/>value = [6.644, 8.795]<br/>class = Less than $50k>, fillcolor="#cfe7f9"] ;
219 -> 221 ;
222 [label=<hours_per_week &le; 68.5<br/>gini = 0.5<br/>samples = 66<br/>value = [33.22, 32.668]<br/>class = Over $50k>, fillcolor="#fffdfc"] ;
218 -> 222 ;
223 [label=<gini = 0.495<br/>samples = 56<br/>value = [25.745, 31.411]<br/>class = Less than $50k>, fillcolor="#dbedfa"] ;
222 -> 223 ;
224 [label=<gini = 0.246<br/>samples = 10<br/>value = [7.474, 1.256]<br/>class = Over $50k>, fillcolor="#e9965a"] ;
222 -> 224 ;
}